Language model created by QuickLM on Sat Nov 30 23:55:37 EST 2013
Copyright (c) 1996-2010 Carnegie Mellon University and Alexander I. Rudnicky

The model is in standard ARPA format, designed by Doug Paul while he was at MITRE.

The code that was used to produce this language model is available in Open Source.
Please visit http://www.speech.cs.cmu.edu/tools/ for more information

The (fixed) discount mass is 0.5. The backoffs are computed using the ratio method.
This model based on a corpus of 34 sentences and 34 words

\data\
ngram 1=34
ngram 2=64
ngram 3=47

\1-grams:
-0.8559 </s> -0.3010
-0.8559 <s> -0.2275
-2.0864 BOTTOM -0.2902
-2.3874 CALM -0.2359
-2.0864 CLEMENTINE -0.2359
-2.3874 CONVERSATION -0.2359
-1.9103 FINISH -0.2957
-2.3874 HELP -0.2359
-1.9103 LEFT -0.2359
-2.3874 MACRO -0.2359
-2.3874 MAXIMIZE -0.2359
-2.3874 MESSAGE -0.2359
-2.3874 NEXT -0.2359
-2.3874 PAUSE -0.2359
-2.0864 PIDGIN -0.2359
-2.3874 PLAY -0.2359
-2.3874 PLAYING -0.2359
-2.3874 PREVIOUS -0.2359
-2.3874 RECORD -0.2359
-2.3874 REPLAY -0.2359
-2.3874 RESPOND -0.2359
-1.9103 RIGHT -0.2359
-1.7853 SEND -0.2233
-2.3874 SENDING -0.2359
-2.3874 SLEEP -0.2359
-1.7853 TALK -0.2233
-2.3874 TALKING -0.2359
-1.6092 TO -0.2902
-2.3874 TRACK -0.2359
-2.3874 UNDO -0.2359
-2.0864 UPPER -0.2902
-2.3874 VOLUME -0.2359
-2.3874 WAKEUP -0.2992
-2.0864 WINDOW -0.2359

\2-grams:
-1.5315 <s> BOTTOM 0.0000
-1.8325 <s> CONVERSATION 0.0000
-1.3554 <s> FINISH 0.0000
-1.8325 <s> HELP 0.0000
-1.8325 <s> LEFT 0.0000
-1.8325 <s> MAXIMIZE 0.0000
-1.8325 <s> MESSAGE 0.0000
-1.8325 <s> NEXT 0.0000
-1.8325 <s> PAUSE 0.0000
-1.8325 <s> PLAY 0.0000
-1.8325 <s> PLAYING 0.0000
-1.8325 <s> PREVIOUS 0.0000
-1.8325 <s> RECORD 0.0000
-1.8325 <s> REPLAY 0.0000
-1.8325 <s> RESPOND 0.0000
-1.8325 <s> RIGHT 0.0000
-1.2304 <s> SEND 0.0000
-1.8325 <s> SLEEP 0.0000
-1.2304 <s> TALK 0.0000
-1.8325 <s> TRACK 0.0000
-1.8325 <s> UNDO 0.0000
-1.5315 <s> UPPER 0.0000
-1.8325 <s> VOLUME 0.0000
-1.8325 <s> WAKEUP 0.0000
-0.6021 BOTTOM LEFT 0.0000
-0.6021 BOTTOM RIGHT 0.0000
-0.3010 CALM </s> -0.3010
-0.3010 CLEMENTINE </s> -0.3010
-0.3010 CONVERSATION </s> -0.3010
-0.7782 FINISH MACRO 0.0000
-0.7782 FINISH SENDING 0.0000
-0.7782 FINISH TALKING 0.0000
-0.3010 HELP </s> -0.3010
-0.3010 LEFT </s> -0.3010
-0.3010 MACRO </s> -0.3010
-0.3010 MAXIMIZE </s> -0.3010
-0.3010 MESSAGE </s> -0.3010
-0.3010 NEXT </s> -0.3010
-0.3010 PAUSE </s> -0.3010
-0.3010 PIDGIN </s> -0.3010
-0.3010 PLAY </s> -0.3010
-0.3010 PLAYING </s> -0.3010
-0.3010 PREVIOUS </s> -0.3010
-0.3010 RECORD </s> -0.3010
-0.3010 REPLAY </s> -0.3010
-0.3010 RESPOND </s> -0.3010
-0.3010 RIGHT </s> -0.3010
-0.9031 SEND </s> -0.3010
-0.4260 SEND TO 0.0000
-0.3010 SENDING </s> -0.3010
-0.3010 SLEEP </s> -0.3010
-0.9031 TALK </s> -0.3010
-0.4260 TALK TO 0.0000
-0.3010 TALKING </s> -0.3010
-0.7782 TO CLEMENTINE 0.0000
-0.7782 TO PIDGIN 0.0000
-0.7782 TO WINDOW 0.0000
-0.3010 TRACK </s> -0.3010
-0.3010 UNDO </s> -0.3010
-0.6021 UPPER LEFT 0.0000
-0.6021 UPPER RIGHT 0.0000
-0.3010 VOLUME </s> -0.3010
-0.3010 WAKEUP CALM 0.0000
-0.3010 WINDOW </s> -0.3010

\3-grams:
-0.6021 <s> BOTTOM LEFT
-0.6021 <s> BOTTOM RIGHT
-0.3010 <s> CONVERSATION </s>
-0.7782 <s> FINISH MACRO
-0.7782 <s> FINISH SENDING
-0.7782 <s> FINISH TALKING
-0.3010 <s> HELP </s>
-0.3010 <s> LEFT </s>
-0.3010 <s> MAXIMIZE </s>
-0.3010 <s> MESSAGE </s>
-0.3010 <s> NEXT </s>
-0.3010 <s> PAUSE </s>
-0.3010 <s> PLAY </s>
-0.3010 <s> PLAYING </s>
-0.3010 <s> PREVIOUS </s>
-0.3010 <s> RECORD </s>
-0.3010 <s> REPLAY </s>
-0.3010 <s> RESPOND </s>
-0.3010 <s> RIGHT </s>
-0.9031 <s> SEND </s>
-0.4260 <s> SEND TO
-0.3010 <s> SLEEP </s>
-0.9031 <s> TALK </s>
-0.4260 <s> TALK TO
-0.3010 <s> TRACK </s>
-0.3010 <s> UNDO </s>
-0.6021 <s> UPPER LEFT
-0.6021 <s> UPPER RIGHT
-0.3010 <s> VOLUME </s>
-0.3010 <s> WAKEUP CALM
-0.3010 BOTTOM LEFT </s>
-0.3010 BOTTOM RIGHT </s>
-0.3010 FINISH MACRO </s>
-0.3010 FINISH SENDING </s>
-0.3010 FINISH TALKING </s>
-0.7782 SEND TO CLEMENTINE
-0.7782 SEND TO PIDGIN
-0.7782 SEND TO WINDOW
-0.7782 TALK TO CLEMENTINE
-0.7782 TALK TO PIDGIN
-0.7782 TALK TO WINDOW
-0.3010 TO CLEMENTINE </s>
-0.3010 TO PIDGIN </s>
-0.3010 TO WINDOW </s>
-0.3010 UPPER LEFT </s>
-0.3010 UPPER RIGHT </s>
-0.3010 WAKEUP CALM </s>

\end\
