Language model created by QuickLM on Sun Nov 17 15:55:23 EST 2013
Copyright (c) 1996-2010 Carnegie Mellon University and Alexander I. Rudnicky

The model is in standard ARPA format, designed by Doug Paul while he was at MITRE.

The code that was used to produce this language model is available in Open Source.
Please visit http://www.speech.cs.cmu.edu/tools/ for more information

The (fixed) discount mass is 0.5. The backoffs are computed using the ratio method.
This model based on a corpus of 23 sentences and 25 words

\data\
ngram 1=25
ngram 2=46
ngram 3=30

\1-grams:
-0.8201 </s> -0.3010
-0.8201 <s> -0.2161
-1.8808 BOTTOM -0.2835
-2.1818 CALM -0.2298
-1.8808 FINISH -0.2953
-1.7047 LEFT -0.2298
-2.1818 MACRO -0.2298
-2.1818 MAXIMIZE -0.2298
-2.1818 NEXT -0.2298
-2.1818 PAUSE -0.2298
-2.1818 PLAY -0.2298
-2.1818 PREVIOUS -0.2298
-2.1818 RECORD -0.2298
-2.1818 REPLAY -0.2298
-2.1818 RESPOND -0.2298
-1.7047 RIGHT -0.2298
-2.1818 SEND -0.2298
-2.1818 SLEEP -0.2298
-2.1818 TALK -0.2298
-2.1818 TALKING -0.2298
-1.8808 TOP -0.2835
-2.1818 TRACK -0.2298
-2.1818 UNDO -0.2298
-2.1818 VOLUME -0.2298
-2.1818 WAKEUP -0.2982

\2-grams:
-1.3617 <s> BOTTOM 0.0000
-1.3617 <s> FINISH 0.0000
-1.6628 <s> LEFT 0.0000
-1.6628 <s> MAXIMIZE 0.0000
-1.6628 <s> NEXT 0.0000
-1.6628 <s> PAUSE 0.0000
-1.6628 <s> PLAY 0.0000
-1.6628 <s> PREVIOUS 0.0000
-1.6628 <s> RECORD 0.0000
-1.6628 <s> REPLAY 0.0000
-1.6628 <s> RESPOND 0.0000
-1.6628 <s> RIGHT 0.0000
-1.6628 <s> SEND 0.0000
-1.6628 <s> SLEEP 0.0000
-1.6628 <s> TALK 0.0000
-1.3617 <s> TOP 0.0000
-1.6628 <s> TRACK 0.0000
-1.6628 <s> UNDO 0.0000
-1.6628 <s> VOLUME 0.0000
-1.6628 <s> WAKEUP 0.0000
-0.6021 BOTTOM LEFT 0.0000
-0.6021 BOTTOM RIGHT 0.0000
-0.3010 CALM </s> -0.3010
-0.6021 FINISH MACRO 0.0000
-0.6021 FINISH TALKING 0.0000
-0.3010 LEFT </s> -0.3010
-0.3010 MACRO </s> -0.3010
-0.3010 MAXIMIZE </s> -0.3010
-0.3010 NEXT </s> -0.3010
-0.3010 PAUSE </s> -0.3010
-0.3010 PLAY </s> -0.3010
-0.3010 PREVIOUS </s> -0.3010
-0.3010 RECORD </s> -0.3010
-0.3010 REPLAY </s> -0.3010
-0.3010 RESPOND </s> -0.3010
-0.3010 RIGHT </s> -0.3010
-0.3010 SEND </s> -0.3010
-0.3010 SLEEP </s> -0.3010
-0.3010 TALK </s> -0.3010
-0.3010 TALKING </s> -0.3010
-0.6021 TOP LEFT 0.0000
-0.6021 TOP RIGHT 0.0000
-0.3010 TRACK </s> -0.3010
-0.3010 UNDO </s> -0.3010
-0.3010 VOLUME </s> -0.3010
-0.3010 WAKEUP CALM 0.0000

\3-grams:
-0.6021 <s> BOTTOM LEFT
-0.6021 <s> BOTTOM RIGHT
-0.6021 <s> FINISH MACRO
-0.6021 <s> FINISH TALKING
-0.3010 <s> LEFT </s>
-0.3010 <s> MAXIMIZE </s>
-0.3010 <s> NEXT </s>
-0.3010 <s> PAUSE </s>
-0.3010 <s> PLAY </s>
-0.3010 <s> PREVIOUS </s>
-0.3010 <s> RECORD </s>
-0.3010 <s> REPLAY </s>
-0.3010 <s> RESPOND </s>
-0.3010 <s> RIGHT </s>
-0.3010 <s> SEND </s>
-0.3010 <s> SLEEP </s>
-0.3010 <s> TALK </s>
-0.6021 <s> TOP LEFT
-0.6021 <s> TOP RIGHT
-0.3010 <s> TRACK </s>
-0.3010 <s> UNDO </s>
-0.3010 <s> VOLUME </s>
-0.3010 <s> WAKEUP CALM
-0.3010 BOTTOM LEFT </s>
-0.3010 BOTTOM RIGHT </s>
-0.3010 FINISH MACRO </s>
-0.3010 FINISH TALKING </s>
-0.3010 TOP LEFT </s>
-0.3010 TOP RIGHT </s>
-0.3010 WAKEUP CALM </s>

\end\
