Language model created by QuickLM on Sun Nov 17 22:46:56 EST 2013
Copyright (c) 1996-2010 Carnegie Mellon University and Alexander I. Rudnicky

The model is in standard ARPA format, designed by Doug Paul while he was at MITRE.

The code that was used to produce this language model is available in Open Source.
Please visit http://www.speech.cs.cmu.edu/tools/ for more information

The (fixed) discount mass is 0.5. The backoffs are computed using the ratio method.
This model based on a corpus of 24 sentences and 26 words

\data\
ngram 1=26
ngram 2=48
ngram 3=31

\1-grams:
-0.8184 </s> -0.3010
-0.8184 <s> -0.2163
-1.8976 BOTTOM -0.2842
-2.1987 CALM -0.2295
-1.8976 FINISH -0.2955
-1.7215 LEFT -0.2295
-2.1987 MACRO -0.2295
-2.1987 MAXIMIZE -0.2295
-2.1987 MESSAGE -0.2295
-2.1987 NEXT -0.2295
-2.1987 PAUSE -0.2295
-2.1987 PLAY -0.2295
-2.1987 PREVIOUS -0.2295
-2.1987 RECORD -0.2295
-2.1987 REPLAY -0.2295
-2.1987 RESPOND -0.2295
-1.7215 RIGHT -0.2295
-2.1987 SEND -0.2295
-2.1987 SLEEP -0.2295
-2.1987 TALK -0.2295
-2.1987 TALKING -0.2295
-2.1987 TRACK -0.2295
-2.1987 UNDO -0.2295
-1.8976 UPPER -0.2842
-2.1987 VOLUME -0.2295
-2.1987 WAKEUP -0.2983

\2-grams:
-1.3802 <s> BOTTOM 0.0000
-1.3802 <s> FINISH 0.0000
-1.6812 <s> LEFT 0.0000
-1.6812 <s> MAXIMIZE 0.0000
-1.6812 <s> MESSAGE 0.0000
-1.6812 <s> NEXT 0.0000
-1.6812 <s> PAUSE 0.0000
-1.6812 <s> PLAY 0.0000
-1.6812 <s> PREVIOUS 0.0000
-1.6812 <s> RECORD 0.0000
-1.6812 <s> REPLAY 0.0000
-1.6812 <s> RESPOND 0.0000
-1.6812 <s> RIGHT 0.0000
-1.6812 <s> SEND 0.0000
-1.6812 <s> SLEEP 0.0000
-1.6812 <s> TALK 0.0000
-1.6812 <s> TRACK 0.0000
-1.6812 <s> UNDO 0.0000
-1.3802 <s> UPPER 0.0000
-1.6812 <s> VOLUME 0.0000
-1.6812 <s> WAKEUP 0.0000
-0.6021 BOTTOM LEFT 0.0000
-0.6021 BOTTOM RIGHT 0.0000
-0.3010 CALM </s> -0.3010
-0.6021 FINISH MACRO 0.0000
-0.6021 FINISH TALKING 0.0000
-0.3010 LEFT </s> -0.3010
-0.3010 MACRO </s> -0.3010
-0.3010 MAXIMIZE </s> -0.3010
-0.3010 MESSAGE </s> -0.3010
-0.3010 NEXT </s> -0.3010
-0.3010 PAUSE </s> -0.3010
-0.3010 PLAY </s> -0.3010
-0.3010 PREVIOUS </s> -0.3010
-0.3010 RECORD </s> -0.3010
-0.3010 REPLAY </s> -0.3010
-0.3010 RESPOND </s> -0.3010
-0.3010 RIGHT </s> -0.3010
-0.3010 SEND </s> -0.3010
-0.3010 SLEEP </s> -0.3010
-0.3010 TALK </s> -0.3010
-0.3010 TALKING </s> -0.3010
-0.3010 TRACK </s> -0.3010
-0.3010 UNDO </s> -0.3010
-0.6021 UPPER LEFT 0.0000
-0.6021 UPPER RIGHT 0.0000
-0.3010 VOLUME </s> -0.3010
-0.3010 WAKEUP CALM 0.0000

\3-grams:
-0.6021 <s> BOTTOM LEFT
-0.6021 <s> BOTTOM RIGHT
-0.6021 <s> FINISH MACRO
-0.6021 <s> FINISH TALKING
-0.3010 <s> LEFT </s>
-0.3010 <s> MAXIMIZE </s>
-0.3010 <s> MESSAGE </s>
-0.3010 <s> NEXT </s>
-0.3010 <s> PAUSE </s>
-0.3010 <s> PLAY </s>
-0.3010 <s> PREVIOUS </s>
-0.3010 <s> RECORD </s>
-0.3010 <s> REPLAY </s>
-0.3010 <s> RESPOND </s>
-0.3010 <s> RIGHT </s>
-0.3010 <s> SEND </s>
-0.3010 <s> SLEEP </s>
-0.3010 <s> TALK </s>
-0.3010 <s> TRACK </s>
-0.3010 <s> UNDO </s>
-0.6021 <s> UPPER LEFT
-0.6021 <s> UPPER RIGHT
-0.3010 <s> VOLUME </s>
-0.3010 <s> WAKEUP CALM
-0.3010 BOTTOM LEFT </s>
-0.3010 BOTTOM RIGHT </s>
-0.3010 FINISH MACRO </s>
-0.3010 FINISH TALKING </s>
-0.3010 UPPER LEFT </s>
-0.3010 UPPER RIGHT </s>
-0.3010 WAKEUP CALM </s>

\end\
