Language model created by QuickLM on Thu Nov 28 01:29:53 EST 2013
Copyright (c) 1996-2010 Carnegie Mellon University and Alexander I. Rudnicky

The model is in standard ARPA format, designed by Doug Paul while he was at MITRE.

The code that was used to produce this language model is available in Open Source.
Please visit http://www.speech.cs.cmu.edu/tools/ for more information

The (fixed) discount mass is 0.5. The backoffs are computed using the ratio method.
This model based on a corpus of 29 sentences and 31 words

\data\
ngram 1=31
ngram 2=58
ngram 3=37

\1-grams:
-0.8164 </s> -0.3010
-0.8164 <s> -0.2182
-1.9777 BOTTOM -0.2871
-2.2788 CALM -0.2291
-2.2788 CONVERSATION -0.2291
-1.8016 FINISH -0.2941
-2.2788 HELP -0.2291
-1.8016 LEFT -0.2291
-2.2788 MACRO -0.2291
-2.2788 MAXIMIZE -0.2291
-2.2788 MESSAGE -0.2291
-2.2788 NEXT -0.2291
-2.2788 PAUSE -0.2291
-2.2788 PLAY -0.2291
-2.2788 PLAYING -0.2291
-2.2788 PREVIOUS -0.2291
-2.2788 RECORD -0.2291
-2.2788 REPLAY -0.2291
-2.2788 RESPOND -0.2291
-1.8016 RIGHT -0.2291
-2.2788 SEND -0.2291
-2.2788 SENDING -0.2291
-2.2788 SLEEP -0.2291
-2.2788 STOP -0.2291
-2.2788 TALK -0.2291
-2.2788 TALKING -0.2291
-2.2788 TRACK -0.2291
-2.2788 UNDO -0.2291
-1.9777 UPPER -0.2871
-2.2788 VOLUME -0.2291
-2.2788 WAKEUP -0.2987

\2-grams:
-1.4624 <s> BOTTOM 0.0000
-1.7634 <s> CONVERSATION 0.0000
-1.2863 <s> FINISH 0.0000
-1.7634 <s> HELP 0.0000
-1.7634 <s> LEFT 0.0000
-1.7634 <s> MAXIMIZE 0.0000
-1.7634 <s> MESSAGE 0.0000
-1.7634 <s> NEXT 0.0000
-1.7634 <s> PAUSE 0.0000
-1.7634 <s> PLAY 0.0000
-1.7634 <s> PLAYING 0.0000
-1.7634 <s> PREVIOUS 0.0000
-1.7634 <s> RECORD 0.0000
-1.7634 <s> REPLAY 0.0000
-1.7634 <s> RESPOND 0.0000
-1.7634 <s> RIGHT 0.0000
-1.7634 <s> SEND 0.0000
-1.7634 <s> SLEEP 0.0000
-1.7634 <s> STOP 0.0000
-1.7634 <s> TALK 0.0000
-1.7634 <s> TRACK 0.0000
-1.7634 <s> UNDO 0.0000
-1.4624 <s> UPPER 0.0000
-1.7634 <s> VOLUME 0.0000
-1.7634 <s> WAKEUP 0.0000
-0.6021 BOTTOM LEFT 0.0000
-0.6021 BOTTOM RIGHT 0.0000
-0.3010 CALM </s> -0.3010
-0.3010 CONVERSATION </s> -0.3010
-0.7782 FINISH MACRO 0.0000
-0.7782 FINISH SENDING 0.0000
-0.7782 FINISH TALKING 0.0000
-0.3010 HELP </s> -0.3010
-0.3010 LEFT </s> -0.3010
-0.3010 MACRO </s> -0.3010
-0.3010 MAXIMIZE </s> -0.3010
-0.3010 MESSAGE </s> -0.3010
-0.3010 NEXT </s> -0.3010
-0.3010 PAUSE </s> -0.3010
-0.3010 PLAY </s> -0.3010
-0.3010 PLAYING </s> -0.3010
-0.3010 PREVIOUS </s> -0.3010
-0.3010 RECORD </s> -0.3010
-0.3010 REPLAY </s> -0.3010
-0.3010 RESPOND </s> -0.3010
-0.3010 RIGHT </s> -0.3010
-0.3010 SEND </s> -0.3010
-0.3010 SENDING </s> -0.3010
-0.3010 SLEEP </s> -0.3010
-0.3010 STOP </s> -0.3010
-0.3010 TALK </s> -0.3010
-0.3010 TALKING </s> -0.3010
-0.3010 TRACK </s> -0.3010
-0.3010 UNDO </s> -0.3010
-0.6021 UPPER LEFT 0.0000
-0.6021 UPPER RIGHT 0.0000
-0.3010 VOLUME </s> -0.3010
-0.3010 WAKEUP CALM 0.0000

\3-grams:
-0.6021 <s> BOTTOM LEFT
-0.6021 <s> BOTTOM RIGHT
-0.3010 <s> CONVERSATION </s>
-0.7782 <s> FINISH MACRO
-0.7782 <s> FINISH SENDING
-0.7782 <s> FINISH TALKING
-0.3010 <s> HELP </s>
-0.3010 <s> LEFT </s>
-0.3010 <s> MAXIMIZE </s>
-0.3010 <s> MESSAGE </s>
-0.3010 <s> NEXT </s>
-0.3010 <s> PAUSE </s>
-0.3010 <s> PLAY </s>
-0.3010 <s> PLAYING </s>
-0.3010 <s> PREVIOUS </s>
-0.3010 <s> RECORD </s>
-0.3010 <s> REPLAY </s>
-0.3010 <s> RESPOND </s>
-0.3010 <s> RIGHT </s>
-0.3010 <s> SEND </s>
-0.3010 <s> SLEEP </s>
-0.3010 <s> STOP </s>
-0.3010 <s> TALK </s>
-0.3010 <s> TRACK </s>
-0.3010 <s> UNDO </s>
-0.6021 <s> UPPER LEFT
-0.6021 <s> UPPER RIGHT
-0.3010 <s> VOLUME </s>
-0.3010 <s> WAKEUP CALM
-0.3010 BOTTOM LEFT </s>
-0.3010 BOTTOM RIGHT </s>
-0.3010 FINISH MACRO </s>
-0.3010 FINISH SENDING </s>
-0.3010 FINISH TALKING </s>
-0.3010 UPPER LEFT </s>
-0.3010 UPPER RIGHT </s>
-0.3010 WAKEUP CALM </s>

\end\
